#include <stdio.h>

// Layer 1 Weights and Biases
float layer_1_weights[] = {-0.40196696, 0.58250123, 0.3475042, -0.3314258, 0.14962228, 0.5928344, -0.28010917, -0.12032206, 0.41121233, 0.05168734, 0.40813357, -0.5274679, 0.23990926, -0.18107179, -0.09069063, 0.6080129, 0.40717858, 0.5009164, -0.57652235, 0.3335149, -0.60045624, -0.22485968, 0.3218233, -0.26637977, -0.45352226, 0.4125379, -0.32327908, 0.31100556, 0.50484145, 0.5000511, -0.58285487, 0.4982908, -0.117599644, -0.20449595, 0.018147582, 0.50429857, 0.20671956, -0.52144504, -0.28665277, -0.56999815, 0.32316878, -0.60338336, -0.51244366, 0.0134618385, -0.48514932, 0.45799226, -0.5311683, 0.30250525, 0.5137444, -0.6174174, -0.50054324, 0.3366801, 0.1529672, -0.38617408, 0.46637097, 0.6725746, -0.41773117, 0.044795584, 0.02656511, 0.43628666, 0.6458296, -0.15219937, 0.47830305, -0.046470378, 0.63671017, 0.34727985, -0.3782511, 0.5699741, 0.50755334, -0.06927626, -0.36870924, -0.4009609, 0.2306316, 0.5761981, 0.5300381, -0.33664736, 0.310913, -0.20885508, -0.42822438, 0.3238691, -0.27778503, -0.4131511, 0.43402883, 0.30479476, 0.33529732, 0.40695342, 0.50478345, -0.18308356, -0.32352644, 0.3124307, 0.68093294, -0.29089823, -0.20967752, -0.59589, -0.31393445, 0.049961977};
float layer_1_biases[] = {0.15206884, 0.18864377, 0.17222433, 0.3279364, 0.11160072, 0.3708192, 0.30220932, 0.15426286, 0.18437251, 0.1761617, 0.32552436, 0.22407295, 0.30100146, 0.1137977, 0.17707889, 0.28529435, 0.26154086, 0.31170005, 0.40779796, 0.24549769, 0.21831752, 0.27072287, 0.30082643, 0.14956102, 0.2833882, 0.22891626, 0.0830383, 0.26239678, 0.23543555, 0.3075782, 0.28348398, 0.03384759};

// Layer 2 Weights and Biases
float layer_2_weights[] = {0.40746242, -0.23965257, 0.4374593, 0.36643144, 0.4832073, 0.3800785, -0.09842909, -0.06388399, 0.14635359, -0.0961758, -0.23186582, 0.13891062, -0.08572953, 0.6384283, 0.396484, -0.101251006, 0.083301835, 0.19950907, 0.034588326, 0.33198255, -0.28067252, -0.055529643, -0.06805137, 0.39435166, 0.20823365, 0.19890945, 0.1255604, -0.0032228092, 0.2280433, -0.23753017, 0.002350601, 0.10461312, 0.3499248, -0.24755771, 0.0006506597, 0.2956698, 0.09921228, 0.11102895, 0.22431946, 0.23913942, 0.31285197, 0.15836984, 0.18502192, 0.07572546, -0.10086675, 0.09447374, 0.1069364, -0.3627925, -0.007725733, -0.0036324346, 0.2754205, 0.48216075, 0.07317351, 0.24545924, -0.11883825, 0.5267531, -0.046482228, -0.1733539, -0.1798495, 0.16059387, -0.5170761, 0.42792094, 0.1846538, -0.08067656, 0.008757668, -0.12851094, -0.2546372, 0.5145893, 0.07701748, -0.2729194, 0.24867564, 0.10549541, -0.41849038, -0.12999646, 0.00042495382, -0.30497706, -0.49373186, -0.560899, 0.014263555, 0.2354788, 0.21390402, 0.05467722, 0.037426833, 0.023682825, 0.13590215, 0.42845806, 0.49776486, 0.31860813, 0.01687634, -0.27919745, 0.07065727, 0.13902047, -0.41358832, 0.057336036, -0.25295106, 0.018071264, 0.043247797, 0.24829426, 0.27702567, -0.12968613, 0.25658014, 0.31442866, -0.111247994, -0.5950603, 0.20389238, -0.25291905, -0.6015007, -0.030678876, -0.062480915, 0.15858418, 0.14158805, 0.18431345, 0.33975956, -0.19611537, -0.5278238, -0.012907738, 0.035379373, -0.29846892, 0.35169655, -0.29486844, 0.54027665, -0.011864993, -0.13707279, 0.1926809, 0.55656123, -0.06822692, 0.42098045, 0.1570442, -0.11010099, 0.075666696, 0.05976141, -0.29651448, 0.40978205, 0.43421388, 0.18698394, -0.26409525, 0.50147766, -0.12904306, -0.17472638, -0.25191033, -0.5371257, 0.40031004, -0.41758838, -0.03235856, 0.274487, 0.26419386, 0.22684224, 0.29556778, -0.075585365, -0.41039807, 0.25043115, -0.10842905, 0.51657826, -0.5054323, -0.073158376, 0.07236895, -0.17037207, -0.086342566, -0.37243274, 0.14221284, 0.50583726, -0.20281798, -0.4656956, 0.25824332, 0.32228792, 0.105778426, -0.0010942694, 0.4436414, -0.5287841, 0.07034072, 0.32076165, 0.17492715, 0.07538934, -0.08107935, 0.18756492, -0.3329852, 0.12420886, -0.15194006, 0.33351055, 0.11093662, 0.12255243, 0.19335496, -0.4826913, 0.061440825, -0.24291024, -0.56839687, -0.14959623, -0.6238853, -0.2705344, 0.5594078, -0.28105056, 0.69117063, 0.046476066, 0.23595658, 0.12547778, 0.43535045, -0.13511162, -0.23069729, 0.1756279, -0.26057428, -0.18441558, 0.07210307, 0.20705158, -0.0370008, 0.37228656, 0.077855214, 0.045321662, 0.2785789, 0.019271554, 0.054216374, 0.41933307, -0.19127874, -0.22576286, 0.670331, 0.11690409, -0.015480752, -0.23532183, 0.22489353, 0.48210916, 0.44286725, 0.44469184, -0.27209148, 0.46597114, 0.1746228, -0.18306763, 0.23532382, 0.14175303, 0.035097364, 0.44602317, 0.1394234, 0.29373154, -0.19230312, -0.22891194, 0.019495854, 0.34382933, 0.105056606, 0.20761798, -0.44835192, 0.37173843, 0.47787052, -0.28192312, 0.017383901, 0.1610344, -0.18336575, 0.123304434, 0.28585508, 0.27019623, -0.2662615, -0.14525439, 0.024105538, 0.24130149, -0.22519441, -0.0057514403, 0.0049724523, 0.16401425, 0.56293344, 0.16534351, 0.15340307, 0.068255626, 0.20823693, 0.11990007, -0.05356046, 0.27944326, 0.13272266, 0.17242149, 0.43803376, 0.018052917, -0.1104522, -0.16850175, -0.28615496, -0.4273784, -0.011372364, 0.09531926, -0.2921574, -0.10285436, 0.053781167, 0.28814405, -0.18196023, 0.2733351, 0.008984502, 0.337002, -0.010524373, -0.15463935, 0.13800009, -0.18321285, 0.0293622, -0.08903634, 0.015887968, 0.028405637, -0.19688407, 0.15271088, -0.4870972, 0.029741803, 0.09926295, 0.5081582, 0.015225003, 0.36512035, -0.34702495, 0.26862505, -0.06694592, 0.106964976, 0.09536757, -0.070448466, -0.038211294, -0.2525041, -0.15636215, 0.30069342, 0.40545017, -0.22664706, 0.0009417516, -0.16595194, 0.16948302, 0.3392574, 0.04698288, 0.49235216, -0.20202692, -0.49782443, 0.08491632, -0.23437189, 0.06041149, 0.41793558, 0.11587246, -0.19229619, 0.26108655, 0.25755438, 0.32830617, 0.5268135, 0.3492108, 0.3939158, 0.17166756, 0.36660945, 0.011257983, 0.23917174, 0.23036376, -0.008954915, -0.058090884, 0.013184458, -0.32945654, 0.012506464, 0.45019144, -0.25822183, 0.033164788, -0.3241016, 0.17967889, 0.26750603, -0.2949159, 0.372132, -0.22246231, -0.4553165, 0.3015954, -0.4396083, -0.19024326, 0.09584241, -0.21624115, 0.24345317, 0.45253363, -0.31173286, -0.16552998, -0.20666811, -0.1988937, 0.6490501, -0.3405564, 0.25936985, 0.04696894, 0.5756349, 0.52045614, 0.4881146, -0.19694813, 0.10148445, 0.11233182, -0.055756565, -0.07749849, -0.10851779, 0.36049345, 0.1235133, -0.21998522, 0.0063603497, 0.48977402, 0.44427016, 0.31349438, 0.29962525, -0.505111, 0.25245327, 0.22339427, 0.25017965, 0.121677704, 0.04510422, -0.20881192, 0.38161328, 0.3886154, 0.5349338, -0.15939407, -0.13288675, -0.04100517, 0.32896057, 0.09440569, -0.097662054, -0.047375936, 0.122501895, 0.35393134, 0.009856687, 0.1941975, 0.48822618, -0.03613528, 0.098762475, 0.17894906, -0.69576365, 0.03279394, -0.2021947, -0.12075144, 0.32254735, -0.34457815, -0.36047623, 0.2738617, -0.09878243, 0.18627685, -0.47717503, -0.31570894, 0.16311409, -0.06865234, -0.089488916, 0.077195376, -0.28983518, -0.32310018, 0.045571733, -0.034895558, -0.23508056, 0.12703283, -0.15196505, -0.21110532, 0.066915266, 0.33715963, 0.41146216, -0.0015134285, -0.45290124, -0.38512936, 0.5583823, 0.011385164, 0.65683025, -0.19141226, 0.22265564, -0.047319617, 0.02558337, 0.019035084, 0.385102, -0.6236319, 0.024214229, -0.27044106, -0.19949687, -0.23969848, -0.057407826, 0.045172278, 0.0496083, 0.20526932, 0.32719085, 0.014246422, -0.456285, 0.09940322, 0.32317668, -0.019396504, 0.053317584, -0.23810768, 0.044216145, 0.51533204, -0.10100694, 0.25865972, 0.055327065, -0.29264382, -0.079870835, 0.13674672, 0.024140334, -0.1855776, -0.35337487, 0.17016096, 0.6471894, -0.019180847, 0.10681544, 0.070512295, 0.45372757, 0.6548642, -0.07394372, -0.30503017, 0.17706381, 0.19648594, -0.023317806, 0.22680123, -0.094820164, 0.34090626, -0.060916852, 0.22597608, -0.37481305, -0.2740982, 0.030837689, -0.11921435, -0.3081018, -0.017358758, 0.45337126, -0.27526894, 0.46917507, 0.32639393, 0.29154614, 0.1506894, -0.038956996, 0.368238, 0.047234915, -0.09853545, -0.42292526, -0.32402852, 0.09314873, -0.018525155, -0.026031453, -0.045498192, -0.20401789, 0.03163317, -0.29341274, 0.32854044, -0.3663439, -0.18315983, -0.09777235, 0.102547035, -0.45766658, 0.46786854, -0.21150011, 0.25600427, -0.4917428, -0.24598908, -0.15653953, 0.2637631, 0.19163185, -0.0057165325, 0.17467509, 0.13271633, 0.6092286, 0.18360572, 0.39520463, 0.4876609, 0.22828037, -0.3724424, -0.06786717, 0.041071914, -0.0067586834, 0.08169305, 0.0742811, 0.3100629, 0.25278193, -0.046804257, 0.025271812, -0.1290591, -0.20745297, 0.19981346, 0.17657371, 0.105188064, -0.51006603, 0.13235626, 0.20291567, -0.325733, 0.20109916, -0.7212324, 0.25288934, 0.03757312, 0.14551762, -0.0055952696, 0.4714243, -0.14102112, 0.24346222, 0.5833513, -0.2577359, 0.0016874113, -0.4414211, -0.41974148, 0.42850164, -0.6007973, -0.5531327, 0.47445026, -0.060122877, 0.36499384, -0.03915931, -0.15294822, -0.15730368, 0.11272748, 0.28979403, -0.06544542, 0.32579026, -0.35239637, 0.39985433, -0.34900445, -0.07178868, -0.29749197, 0.6052863, 0.4442486, 0.34385544, -0.17066061, -0.08902723, 0.15250094, -0.0021031487, 0.07298626, -0.35705104, 0.28369668, 0.13360827, -0.2767535, 0.2150926, 0.30937365, 0.22960995, 0.53673756, -0.1627737, -0.36418098, 0.022313926, -0.14158441, 0.19781864, 0.2647055, 0.44799852, -0.21473972, 0.05542434, 0.37445828, 0.054558497, 0.30534673, 0.039793883, 0.45968214, -0.2514586, -0.16486019, -0.23596829, -0.084719814, -0.5621216, 0.06558588, 0.20671698, 0.16871205, 0.104750685, -0.15384597, 0.52512443, -0.2090949, -0.013184057, 0.11660191, 0.5619683, -0.016272372, -0.50078523, -0.46098354, 0.38061616, -0.046664163, 0.06366442, -0.32298788, 0.013504034, -0.09879966, 0.29642668, 0.15637164, -0.25720027, -0.02824698, -0.33829305, -0.05019939, 0.16728024, -0.09750314, -0.2582687, -0.1830228, 0.56157196, 0.27335373, 0.15551917, -0.30387065, 0.3281619, 0.026411887, 0.1100262, 0.046856854, 0.11051298, 0.06154491, 0.075766616, 0.2304947, 0.25112998, 0.17634472, -0.13066788, -0.040933438, 0.45987147, -0.17184909, 0.33268836, -0.3159245, 0.053028416, -0.19078214, -0.090285145, -0.31113988, -0.00796985, 0.5049632, 0.35146555, -0.24600624, 0.5608278, -0.35200626, 0.30754814, 0.1656363, 0.03789459, 0.36344182, 0.11354303, 0.20634043, -0.2606123, 0.09893549, -0.03696157, 0.06488185, -0.44588158, 0.3758286, -0.43953225, 0.15496445, 0.08460185, -0.01588602, 0.220294, 0.3726504, 0.1674386, -0.3971187, 0.04546816, 0.09079955, 0.30190963, -0.22866467, 0.16473456, -0.24596557, 0.16372217, 0.52559894, 0.19759989, 0.13891636, 0.004062946, 0.43173146, -0.35385004, -0.1539724, -0.5730814, 0.24160258, -0.0354214, 0.4641678, 0.11520527, -0.3193579, -0.15321745, 0.0025069406, 0.18263859, -0.40478447, 0.17385635, 0.43977755, 0.31756732, -0.3925289, -0.18525815, -0.30336505, 0.37243816, -0.1405973, 0.056827873, -0.12349641, -0.016926577, 0.107779294, 0.53303766, -0.043811455, -0.27506366, 0.21998085, -0.4023172, -0.25688753, 0.1442115, -0.033871826, -0.5922078, 0.13408208, -0.0715125, -0.25235096, -0.022410087, 0.5196346, 0.40632236, -0.2584892, -0.16327204, -0.174879, 0.31584913, 0.013067181, 0.42595956, -0.51122046, 0.12263269, -0.18759204, 0.341058, -0.07255702, 0.54602206, -0.31336573, 0.19880049, 0.19897987, -0.19964255, 0.18741886, 0.21154396, 0.11484935, -0.039483465, 0.18233146, 0.27929342, -0.4260564, 0.07742847, -0.48671302, 0.058315452, 0.22750825, 0.637204, -0.1803173, 0.31154242, -0.1083232, -0.27085122, -0.33533126, 0.1029832, -0.40378994, -0.6138193, 0.54938114, 0.5313648, 0.05885174, -0.3955437, 0.13541064, 0.091960214, 0.25275236, 0.43151322, -0.23772714, 0.36554933, 0.3416528, 0.40894848, -0.033109576, 0.27871054, -0.055437446, 0.08827436, 0.20635769, 0.30436116, 0.39597645, 0.43725136, 0.3841453, -0.12493165, 0.04611315, -0.08352037, 0.46171892, -0.32949185, -0.30201262, 0.48029357, 0.12959424, 0.46636212, 0.069768205, 0.15384942, 0.03748657, -0.12710404, 0.21803358, 0.31386766, 0.024666939, -0.1606531, 0.10777289, 0.08230844, 0.30298433, 0.16654809, -0.22420514, -0.040258143, -0.304321, 0.17115936, -0.10208484, 0.41157895, 0.29157212, 0.18100351, -0.34215212, 0.5055952, -0.048940312, -0.07881103, 0.17394194, -0.16613191, 0.3510321, -0.03666859, -0.1275751, 0.25015, -0.25544035, -0.43876773, 0.40131372, 0.19034868, -0.09100875, 0.20954445, 0.20577824, -0.06714585, 0.050343577, 0.58128613, 0.17525475, -0.123373784, -0.12459392, 0.2216036, 0.09114163, 0.16417542, 0.025128163, -0.021852663, 0.4165022, -0.32026, -0.32434842, -0.09705669, 0.1364114, -0.24857682, 0.3082995, -0.35406128, -0.048410367, -0.29103822, -0.16738059, -0.4876351, 0.30114573, 0.44977054, 0.044792466, 0.4058128, -0.12501784, 0.55604714, -0.017366448, 0.49332258, 0.09805828, 0.20367885, 0.05268859, 0.18153667, -0.097392, -0.030986564, 0.0757603, -0.28957382, -0.10356304, -0.35469308, -0.22563553, 0.10496012, 0.2760635, -0.47920063, 0.017994482, -0.37566975, 0.14047012, -0.05019204, 0.26946005, -0.39237878, -0.13232706, -0.36852577, -0.21800105, -0.07866422, 0.34175718, 0.6045631, -0.2412937, 0.023035021, -0.09426389, 0.54566896, 0.31916356, 0.22226316, 0.02907812, 0.053701784, 0.0036751744, -0.33692575, -0.2114139, 0.37647066, 0.29879698, 0.12918018, -0.08555695, 0.48467836, -0.17663983, -0.45236686, 0.5380573, -0.34744066, 0.021029722, 0.19649191, 0.026355594, -0.41601384, -0.117190175, -0.11288192, 0.03963413, -0.08978611, -0.3395357, -0.044281725, -0.17175321, 0.54815847, -0.22850251, 0.5626909, -0.24608576, 0.07288441, 0.26217034, 0.1689071, 0.52025974, -0.37704587, -0.054909192, 0.2748611, 0.11877853, -0.06727763, 0.3034725, 0.06968458, 0.42432293, -0.46458334, -0.1894797, 0.23284633, 0.3635813, -0.19775724, -0.3491823, -0.40236363, -0.5132921, 0.5211782, -0.26948377, -0.22182304, -0.20628127, 0.27559447, 0.09435064, 0.032146763, 0.14270982, -0.044716563, -0.24889153, -0.48709533, -0.51233345, 0.009995142, 0.3052648, 0.6373807, -0.028370084, 0.03833651, 0.30025294, 0.100693874, 0.41684952, 0.06333033, -0.21508172, 0.33711532, -0.18060501, 0.14396144, 0.18565854, -0.14406145, 0.08697684, -0.22766104, -0.09566643, 0.34693515, 0.30400378, -0.12762584, -0.025372332, -0.264479, 0.03609606, 0.14710887, 0.11085588, -0.009485963, -0.043182187, 0.12781319, 0.1511615, 0.43254113, 0.2822357, 0.026309334, 0.042062577, -0.16127416, -0.025398009, -0.06362664, -0.25304165, -0.17257915, -0.09995063, -0.30830413, 0.28722426, 0.2095121, -0.13738239};
float layer_2_biases[] = {0.101288736, -0.016823186, 0.06159631, 0.08167221, 0.092530176, 0.11175044, 0.21318977, 0.052842434, 0.21980543, 0.10946203, 0.17570403, -0.057577632, 0.22714137, 0.19999208, 0.13450013, 0.120617576, 0.16302474, -0.040888082, 0.15897696, 0.014666083, 0.16217935, 0.2058205, 0.13907115, 0.08112403, 0.11496673, 0.069535814, 0.21774937, 0.07157008, 0.12802212, -0.009777823, 0.0747045, -0.022443596};

// Layer 3 Weights and Biases
float layer_3_weights[] = {0.53050613, 0.5375732, 0.07075163, -0.26696345, -0.36681014, -0.60238194, -0.014407355, 0.15372278, -0.19486405, -0.39840904, 0.09202576, 0.023430131, 0.3396905, 0.08013265, -0.19070673, 0.4876677, 0.49315053, -0.5117631, -0.5734407, 0.2531166, -0.41373083, 0.21124351, -0.3302836, 0.24861343, 0.4636345, -0.72808623, 0.110749386, -0.51535136, -0.424014, -0.254584, 0.27070305, -0.35189053, 0.14246239, -0.6056107, 0.10661324, -0.35257277, 0.15720126, 0.08521145, 0.48491904, -0.21525052, -0.45444092, -0.14692764, -0.4267429, 0.38356146, -0.49289918, -0.43146178, -0.6876916, -0.06189752, 0.6589173, -0.28540352, -0.36585572, 0.52435577, 0.11795512, -0.9748156, -0.3574806, 0.5018454, -0.25050303, -0.09244306, 0.055977814, -0.45867878, -0.5700628, -0.39728263, 0.4841552, -0.6380872, -0.46383047, -0.75880486, 0.26116732, -0.04029341, -0.30905244, -0.3525856, -0.37877157, -0.34933412, -0.50759286, -0.086427964, 0.5172501, 0.3564351, -0.75535357, -0.3890143, 0.46347412, -0.7490689, -0.6277017, 0.24086271, -0.25540027, -0.5053439, -0.27798524, -0.58724546, 0.22909568, 0.6213123, -0.5804592, -0.3361129, -0.15047933, -0.6803218, 0.32191467, -0.67287064, 0.73342055, 0.34119853, 0.04227436, 0.42234513, -0.784246, -0.28191894, 0.62710947, 0.17984909, -0.32506144, -0.1893825, -0.34075317, 0.06481176, 0.023131812, 0.2272974, 0.09642182, 0.4566362, 0.62207794, -0.594759, -0.17946708, 0.027527986, 0.5897529, 0.0050597196, -0.4190101, -0.20984262, -0.45375115, 0.0072701876, -0.44887412, 0.44852456, -0.8590051, -0.48832873, 0.56734824, -0.10852845, -0.72150344, 0.24345641, 0.60844636, 0.2627881, -0.7704751, 0.43253917, -0.6531623, -0.27855152, -0.7568064, 0.2524468, 0.5344999, 0.50564563, 0.35718814, 0.5161687, -0.29216358, -0.37933397, -0.18205151, 0.16543667, 0.5137904, -0.1349858, -0.5187687, -0.19284348, 0.5691927, -0.23651621, -0.4588555, -0.21020846, -0.18308648, 0.6688462, -0.5090611, -0.01861605, -0.1553431, -0.75412524, 0.2349992, -0.18622959, -1.0167081, 0.43872997, -0.011310693, -0.1782496, -0.61278284, 0.54654115, -0.65165913, -0.045753293, -0.16044651, -0.644505, -0.20941105, 0.52772325, 0.4978984, -0.015125554, -0.42659363, 0.36597183, 0.09316029, 0.2070878, -0.53240615, -0.2951816, -0.30015337, -0.58811194, -0.007028072, 0.5560135, 0.11766233, 0.057852272, -0.4575857, 0.122919366, 0.44476113, -0.24525692, -0.2561594, 0.39770243};
float layer_3_biases[] = {-0.0019789361, 0.001099717, 0.09719423, -0.004946193, 0.032227285, -0.10509096};

