#include <stdio.h>

// Layer 1 Weights and Biases
float layer_1_weights[] = {-0.5594964, -0.07738009, 0.47096437, 0.24161574, 0.17133641, -0.5764739, -0.47025672, 0.41979736, -0.6059249, -0.27101183, 0.2509884, 0.27118438, -0.3858082, -0.023338122, 0.35369632, 0.61056596, 0.5819542, -0.6035476, 0.513025, -0.029228248, -0.3745908, -0.45324093, -0.34054384, -0.38063547, 0.5066106, -0.38502538, -0.16142479, -0.23649096, 0.66142, -0.3723872, 0.32307652, -0.057178978, 0.2017477, -0.6062411, 0.5103357, -0.46383196, -0.092777796, -0.2777764, -0.18457603, -0.50962836, -0.46640503, -0.23777997, -0.5262565, -0.3224755, -0.20128505, 0.51196754, 0.29107153, -0.45537233, 0.4203838, 0.20679149, 0.3521356, -0.43161625, -0.32712975, 0.12775038, 0.44680622, -0.5527528, -0.47725755, -0.3916006, 0.50885963, 0.44582033, -0.13070558, 0.3837063, 0.3651799, -0.60882974, 0.054130614, -0.09590053, 0.537675, -0.50319815, 0.47707587, 0.13758132, 0.39607257, -0.21857376, -0.4644826, 0.398713, 0.21251261, 0.4271183, -0.37567613, -0.41703692, -0.25410327, -0.34458914, 0.28830722, -0.35257304, -0.15564103, 0.5779307, -0.51963216, -0.5479352, -0.13573223, -0.12956685, 0.42763254, -0.06287346, -0.21298262, -0.028248124, -0.07783956, 0.47956744, -0.33114564, -0.6496926};
float layer_1_biases[] = {0.106375664, -0.069440745, 0.2982131, 0.27221778, 0.213563, 0.2436516, 0.25562033, 0.2420301, 0.28413025, 0.25381124, 0.29257405, 0.24031073, 0.28319022, 0.11289313, 0.25780573, 0.2625238, 0.24408674, 0.15397343, 0.22518931, 0.11581164, 0.27684844, 0.15439127, 0.20715731, 0.16762878, 0.28259468, 0.25903922, 0.13198397, 0.2266763, 0.06474895, 0.29192945, 0.28660423, 0.25051516};

// Layer 2 Weights and Biases
float layer_2_weights[] = {-0.10383806, 0.48640135, 0.124314375, -0.1367314, 0.11160903, 0.4519735, 0.017297937, -0.18583086, 0.12556455, 0.51112485, 0.26979887, -0.08603006, -0.22680965, 0.15435977, -0.0060775443, 0.23905692, -0.30400378, 0.4323399, 0.08346998, -0.3253995, -0.07706092, -0.07542227, 0.19413552, 0.47162312, 0.37424076, -0.0025438948, 0.15787841, 0.060130816, 0.38347498, 0.16869211, 0.053406548, 0.48245665, 0.30391544, -0.2350882, -0.026610337, -0.050674833, -0.06578142, 0.2200002, 0.080886476, -0.12570672, 0.1735993, -0.4444393, -0.070036665, 0.22358274, -0.05682, -0.18523085, -0.24225035, -0.16509476, 0.016314676, -0.3691068, 0.33480763, 0.085388355, 0.15187089, -0.01444995, 0.096706025, 0.23378314, 0.17837189, -0.28009576, -0.007442689, 0.1321371, 0.04027031, 0.060628746, -0.31216452, 0.24015509, -0.1683393, -0.23869318, -0.001989278, 0.40114307, 0.10410564, -0.070583664, 0.054975465, 0.13459149, 0.14563079, 0.2135082, -0.2016178, -0.23919147, 0.25483784, -0.15640177, 0.14316957, -0.08189659, 0.16941725, 0.43856433, -0.25787878, -0.07738813, -0.053707052, -2.3211383e-05, 0.061461646, 0.2169648, 0.5522242, 0.24163719, 0.08365574, 0.29365522, -0.13234751, 0.22992419, 0.31226987, 0.1779406, 0.3898945, 0.035775706, -0.2921248, 0.09136828, 0.17800729, 0.022349715, -0.15352838, 0.3913058, 0.11192881, -0.059615124, -0.20834914, 0.103830494, 0.14233822, -0.029551107, -0.07439146, -0.26621038, 0.3272002, -0.2172885, 0.32845563, 0.26611233, -0.06724653, -0.04289873, -0.08605493, -0.21004094, -0.13127033, -0.37980872, -0.11779376, 0.116801664, 0.41661844, -0.5313181, 0.44486955, -0.31842434, 0.023076015, -0.17574237, -0.23783493, 0.1090761, 0.41357365, 0.2764107, -0.17161503, 0.15229361, 0.37087876, 0.31386444, -0.31771722, -0.18327568, 0.36867565, 0.031170202, -0.31570578, -0.318316, -0.2117532, -0.05146423, 0.12855333, 0.11125401, -0.40592858, 0.1886452, 0.28678498, -0.26540077, 0.08352472, 0.3485143, 0.14550407, 0.5250119, -0.14730561, 0.0045248796, 0.12797403, -0.101315014, -0.22973816, 0.07335639, 0.109766945, -0.12554169, 0.0014068587, -0.049899533, 0.27789325, 0.0055896286, 0.28377774, 0.08433112, -0.27318683, 0.21170866, 0.28595367, 0.13886386, 0.12157115, 0.43327388, -0.6686206, 0.39240536, 0.14249946, 0.05145129, 0.13698086, 0.15507402, 0.19647762, -0.31710485, -0.5872175, 0.32761073, 0.20076403, -0.18820299, 0.32249892, -0.46092576, -0.059262205, 0.59904397, -0.022755846, 0.1764788, -0.16267174, -0.06885368, 0.04402269, 0.29689023, 0.12564313, 0.10623806, 0.53679675, 0.48629427, 0.24544513, 0.11013653, 0.43318704, 0.4649761, -0.028776223, 0.17951941, -0.7172938, 0.41829014, 0.16122086, 0.41120836, 0.2930859, -0.19609565, 0.21727216, -0.01726333, -0.066542074, 0.37980944, 0.2416367, 0.29302457, -0.026707951, -0.08060276, 0.12308347, 0.43774462, 0.04784363, -0.33196256, 0.036450237, 0.49164042, 0.31074265, 0.28586534, -0.012094601, 0.3120721, 0.24303718, -0.39695966, 0.24343887, 0.30930027, 0.12975973, -0.23225896, 0.09248579, -0.21252257, 0.11495746, -0.0957238, 0.5327916, 0.23670581, -0.010032971, 0.033830114, -0.4525449, -0.04183882, -0.116543315, 0.031854656, 0.21480171, 0.10628891, 0.22080004, -0.3155442, 0.23736085, -0.27649048, 0.30832636, 0.15895337, -0.008220563, 0.028349945, -0.36799014, -0.14178714, 0.110375606, -0.017395644, 0.1771723, 0.21261054, -0.06218014, 0.092615694, -0.2013571, 0.40494376, -0.2270356, 0.42778477, 0.15072598, -0.3020971, -0.0023270133, -0.15523046, 0.49264285, 0.2444244, 0.026779937, -0.3855653, -0.42402533, 0.24000199, -0.54974556, -0.10786148, 0.3186134, -0.38112894, 0.06277305, 0.17695218, 0.12117825, -0.12315406, -0.25945467, -0.3974457, 0.3601635, 0.31675643, -0.11367914, -0.29294264, 0.20742196, 0.25161153, -0.32965252, 0.0104706995, 0.51846373, 0.23098093, -0.21498221, 0.07026776, -0.52758235, -0.05780086, 0.18984348, -0.020935861, 0.1435302, 0.07360682, 0.20317651, -0.3208258, -0.34579775, 0.04499931, 0.33445054, -0.061047412, -0.11650285, 0.14762197, -0.36472854, 0.015357699, -0.058409434, -0.40544724, 0.1326448, -0.14727172, 0.055487312, 0.33636555, -0.09333775, 0.14272329, 0.45964658, -0.39695507, 0.0024093466, 0.27445906, 0.2844969, 0.24915247, 0.09494266, -0.44716075, -0.47874343, 0.20062834, 0.41194493, 0.50680333, -0.03411614, -0.24036126, 0.07617776, 0.23412701, -0.1616205, -0.22579542, 0.25694594, 0.40965807, 0.1662305, -0.29775804, 0.043526087, -0.30445588, 0.1760009, 0.22323513, -0.25121957, -0.041559543, 0.43896544, 0.4418176, 0.044324294, -0.052214835, 0.3167059, -0.18053244, 0.20143203, 0.27993345, 0.57300943, 0.17889193, 0.17837878, -0.51907414, -0.53236455, 0.16985466, -0.08128964, 0.26755512, -0.013481928, -0.2978436, 0.39819244, -0.032824527, -0.20988251, 0.055957116, 0.53854805, 0.121938154, 0.16768418, -0.187454, -0.19202866, -0.12398568, 0.37303263, 0.17804475, 0.27931908, 0.12666629, -0.03129464, -0.016424447, 0.19586533, 0.04473266, 0.011060271, 0.011299346, -0.057486687, 0.551334, -0.2545041, 0.51251537, 0.22133681, 0.09129485, -0.034061912, -0.061034705, 0.22876154, -0.33451173, 0.14662223, -0.20054387, -0.07918546, -0.28479767, -0.37540382, 0.2207667, -0.6152733, -0.08666237, 0.02987, -0.32426468, -0.23931536, 0.31658518, 0.22769107, -0.05518567, 0.24523465, 0.4582438, -0.009811594, -0.4362401, -0.2564889, -0.22689794, 0.10067666, 0.25659603, 0.09296989, 0.09043126, -0.15960269, -0.14022152, -0.27036607, 0.1717343, 0.15601084, 0.069151685, -0.57630146, -0.05033701, 0.30480874, -0.05824329, 0.43928766, -0.124850824, 0.078435615, 0.06356099, -0.17003395, -0.057823386, 0.020815168, 0.3450923, 0.18809807, 0.024726523, 0.25846425, -0.039676506, -0.18284811, 0.42824158, 0.37762696, -0.36181858, 0.34943104, 0.43257207, -0.12380616, -0.23139092, -0.33165318, 0.5038981, -0.25976354, -0.2265868, -0.115132876, 0.12129276, 0.09254936, 0.24283852, -0.25699884, 0.17370713, -0.22514252, 0.20893756, -0.18515782, 0.47286725, 0.35505918, 0.1093613, 0.12887827, -0.051590007, 0.14030442, 0.5268383, 0.7397269, -0.15494652, 0.29870203, -0.0442169, -0.20885994, 0.0772103, 0.14722684, 0.25474575, 0.020900963, 0.22908552, -0.1475585, -0.2566656, -0.051295593, 0.52397954, 0.119685255, -0.06072326, -0.09731424, -0.090441294, 0.008165213, -0.010489076, 0.41762012, 0.32731187, 0.29962212, -0.11755562, -0.43365285, -0.21501428, -0.3841265, -0.06660549, -0.010784693, 0.31294268, 0.4081586, -0.51593715, 0.5145807, -0.31561103, -0.39402422, 0.18039754, -0.26035276, 0.2499648, 0.18160275, 0.14878319, 0.3371472, 0.341569, -0.14451668, 0.35040155, -0.032971367, -0.14332323, -0.14981364, 0.06802557, 0.122670144, 0.20422696, -0.08574141, 0.29063725, -0.56292146, 0.27915782, 0.1174448, -0.14634098, 0.2591355, -0.02391449, 0.09943256, 0.23681143, 0.3886694, 0.10731551, 0.1363899, 0.07676361, 0.13567893, 0.3838002, 0.047673095, 0.50901806, -0.010005959, 0.16277666, 0.124351054, 0.14695439, 0.45610923, 0.1204519, -0.39495292, 0.43134972, -0.18164672, -0.008632223, -0.26535198, 0.22143279, 0.09390548, 0.27316946, 0.32336766, 0.26098788, -0.037990198, -0.0057507735, -0.07427843, -0.29906368, -0.19221748, -0.24610004, -0.0019327778, 0.17633867, -0.8161428, -0.07526251, 0.37185848, -0.032042544, 0.12663339, 0.17084508, 0.07657829, -0.10322846, -0.31478402, 0.10158763, 0.38369685, -0.13917655, 0.37506515, 0.42174533, -0.4447934, 0.09531332, 0.17838533, 0.5265654, -0.50344455, -0.5263842, -0.26956776, 0.111282334, 0.4255186, -0.06849809, -0.1394062, 0.36539742, 0.011141756, 0.09026137, 0.2933688, 0.47125313, 0.37844333, -0.2715957, 0.35431737, 0.3874185, -0.1330963, -0.010250444, 0.41652358, 0.32106078, 0.2361989, 0.14978555, -0.17857431, -0.039911967, -0.12368546, -0.06272531, -0.20112935, -0.38392395, 0.23076376, -0.026206406, 0.037792396, -0.2308769, 0.53690845, 0.07522959, -0.12878534, 0.03323232, -0.37482113, -0.04732718, -0.15615715, 0.23556584, -0.093564905, 0.2516343, 0.32064077, -0.39181596, -0.13257964, -0.12784782, 0.25274077, 0.10515473, 0.38691866, -0.16883266, -0.42795998, -0.538466, 0.515945, -0.011253626, -0.16680315, 0.12771568, -0.30869898, 0.34397775, -0.039604176, 0.029119762, 0.24625362, 0.3210126, 0.13692644, 0.5408662, 0.19949998, 0.27470756, 0.26297805, 0.076855496, 0.28266132, 0.17541456, 0.3670665, -0.17295414, 0.45798808, -0.0039387196, -0.27588987, 0.017319018, 0.06780604, 0.25332767, -0.7142667, -0.32899183, 0.21885273, -0.4264967, -0.19504583, 0.01306014, -0.010248234, 0.26465353, -0.270079, 0.07969028, -0.18104444, -0.052648216, 0.16136971, -0.26556414, -0.37391555, 0.47257185, -0.29831362, 0.3417555, -0.431178, 0.40504336, -0.2790085, 0.035782203, 0.53786534, 0.4265443, -0.065654315, -0.038221505, 0.26688588, -0.24931338, -0.21290326, -0.2745033, 0.12454654, -0.1452555, -0.27623057, 0.002044455, -0.22519228, -0.2429211, -0.06989941, 0.11964543, 0.0866791, 0.03299482, -0.07503771, 0.35296375, 0.052830826, 0.22079182, 0.23679172, 0.2837988, -0.017254345, 0.5788393, -0.26478148, 0.15624811, -0.05527317, -0.030969262, 0.105791435, 0.08391619, -0.046119515, -0.41674176, -0.3454764, -0.43405762, 0.3098677, -0.16575359, 0.01121046, 0.48419017, 0.21323039, 0.20636617, -0.67578137, -0.09211958, -0.17212062, 0.40886173, 0.2512465, 0.12466273, 0.3576134, -0.02165025, 0.07272039, -0.41039273, -0.20206998, 0.14296015, 0.29960093, 0.25931704, 0.29519504, -0.023500087, -0.053330727, 0.46043438, -0.17889455, 0.46962264, -0.14665943, 0.054337807, -0.055105332, -0.22262888, 0.4531331, 0.04464362, 0.44334573, -0.16420077, -0.16357394, 0.11909625, -0.018934889, -0.2547136, -0.20875244, -0.06412012, 0.24556673, -0.20552944, -0.3136659, 0.18674982, 0.11050413, 0.009626413, 0.04071325, -0.19557633, -0.010540471, 0.03834383, -0.22467299, 0.26218185, 0.5833097, 0.22681846, 0.061681014, 0.07080525, 0.08089008, 0.34612948, 0.03934024, -0.34166232, -0.29555207, 0.43581137, 0.038979694, 0.36265278, -0.11323828, -0.23263848, 0.1718492, 0.16490546, -0.43744352, 0.19908798, 0.4693086, 0.45967048, 0.17804427, -0.43944278, 0.11315196, -0.4171466, 0.31612274, 0.3418163, -0.2614168, 0.064647205, -0.3807245, 0.4354304, 0.36620793, -0.2326116, 0.31204665, 0.31788045, 0.25453192, 0.27462876, 0.1415574, 0.40384868, 0.055021495, 0.32439873, 0.19190162, 0.056824565, 0.28082538, 0.05687383, 0.32480422, 0.10301639, -0.21298392, -0.35277614, -0.5166044, 0.019963643, -0.31695893, 0.11503475, 0.4342414, -0.022726811, -0.12818588, 0.2546076, -0.10555406, 0.27365205, 0.27581292, -0.050599266, 0.087103166, -0.37141144, 0.031872798, 0.044904374, 0.1139617, 0.33150294, 0.25848088, -0.018755645, -0.38486183, -0.28085867, 0.13475432, 0.089827426, 0.4768079, -0.4186631, -0.5847466, 0.08222515, -0.017472196, -0.20793152, 0.07778475, 0.19673835, 0.124597006, 0.1931279, -0.23971762, 0.20053515, -0.38819075, 0.062540315, -0.03604192, 0.46783757, -0.0892373, 0.15485312, 0.16477747, 0.33898786, 0.13011776, -0.20177563, -0.16975383, 0.38859475, -0.34420857, 0.18553376, -0.06733684, -0.32312852, -0.25251526, 0.26052803, -0.2250651, 0.43241113, 0.25271767, -0.25285223, -0.2745263, 0.061430946, 0.35452554, 0.18346488, 0.3720935, 0.073526666, 0.5404074, 0.47620955, -0.47161895, 0.12135913, -0.14313105, 0.22559482, 0.1602826, 0.26464093, -0.13151343, 0.15231848, 0.050400037, 0.24122106, -0.046369575, -0.18170157, 0.11377537, -0.020540237, -0.109058514, -0.15734565, -0.06882926, 0.28842255, -0.36207062, -0.06648297, -0.1699767, 0.11992214, -0.17743105, 0.118689746, 0.078178994, 0.45006055, 0.15024483, -0.13349694, -0.20237964, 0.45659652, -0.63436687, -0.44239542, 0.20976344, 0.15691899, 0.3997077, 0.017656025, 0.40357897, 0.021798072, -0.62181824, 0.3962868, -0.03455094, -0.3197703, 0.48837477, 0.31165773, -0.026021006, -0.25933853, 0.29173216, 0.34734178, -0.17316304, -0.33958083, -0.018351452, 0.30374226, -0.09830029, 0.3602775, 0.14564204, 0.2665258, -0.43334353, 0.09314204, -0.015512852, -0.23881897, 0.5795274, 0.16228375, 0.34638798, 0.52371746, 0.11144266, -0.018792158, 0.09950199, 0.46703675, -0.06583221, 0.3390124, 0.25167897, 0.23186308, -0.32153752, 0.46612474, 0.054397445, -0.24861774, 0.38358882, 0.21566194, -0.35737368, 0.070880346, 0.2580367, 0.4333165, -0.12465157, -0.31556594, 0.040835407, 0.23857212, 0.5252632, 0.22863166, -0.71839935, 0.018268578, -0.2364249, -0.13638856, 0.08863514, 0.4650274, 0.22024575, 0.04568799, 0.31344283, 0.013044039, 0.020133786, 0.32381508, 0.3376779, -0.19309935, 0.21979325, 0.07751909, 0.018244155, 0.14220318, -0.3969796, 0.21727954, -0.30941516, -0.00012224913, 0.43549797, 0.06561196, -0.05932977, 0.13078828, 0.17220573, 0.11286311, -0.30718172, -0.3320392, 0.21375716, -0.3625192, 0.21250214, 0.2736849, 0.4773736, -0.0052425554, -0.08592113, 0.052268825, -0.17449474, -0.27937782, -0.03698412, 0.019666702, 0.11131918, -0.11994625, 0.3249869, -0.3676979};
float layer_2_biases[] = {0.040677376, 0.045270097, -0.02348229, 0.05479607, 0.15606508, 0.09248148, 0.037937667, 0.085036226, 0.01827186, 0.17798597, -0.036303602, 0.15458252, 0.17078638, 0.24305025, -0.016732713, 0.13441193, 0.15973343, 0.14999841, 0.049822345, 0.12145101, 0.02833432, -0.02415391, 0.12219469, 0.12168085, 0.19903037, 0.118258364, 0.08244647, 0.13179506, 0.13622367, 0.17727661, 0.009601284, 0.12144117};

// Layer 3 Weights and Biases
float layer_3_weights[] = {-0.35546032, -0.43618432, 0.12297657, -0.26785582, -0.44602454, 0.44121468, -0.03693444, -0.23911574, -0.5497509, 0.35552853, -0.1742218, 0.256405, 0.0691139, -0.017916225, 0.16700156, 0.14625156, 0.13012528, 0.3244072, -0.69838196, 0.23713118, -0.6566618, -0.44686615, 0.21794203, 0.5299918, 0.40922582, 0.3311828, -0.54785085, -0.19930352, 0.18586966, -0.41118428, 0.29569882, 0.15370604, 0.31691676, 0.44786373, -0.36326408, -0.4991539, -0.6061815, 0.30530697, -0.18259268, 0.28328615, -0.0027165017, -0.33074152, -0.36249125, 0.3729304, 0.007830676, -0.543216, 0.3835317, -0.097313166, 0.39799464, -0.13277715, 0.5711039, -0.05114233, -0.22996098, -0.29172403, 0.09880905, -0.6532783, -0.4926518, 0.18142559, 0.08484612, 0.18295747, 0.29296517, -0.1503509, -0.12579815, 0.10018454, -0.38013574, 0.15245432, -0.6061403, 0.18514946, 0.35958272, -0.05771005, -0.41491097, 0.17874596, 0.51468813, -0.56405723, 0.38064677, -0.6562979, 0.05795516, 0.012085887, 0.19274229, -0.7238932, 0.02465021, 0.22450918, -0.78041214, -0.2683091, 0.2579151, -0.041905247, 0.30142125, 0.29214448, 0.038139842, 0.3184573, -0.55633575, -0.23390758, -0.5503593, 0.31126142, 0.3856066, -0.110421725, -0.529519, -0.718784, -0.7061578, -0.55482095, -0.19188833, 0.32616982, 0.5005607, 0.35137513, -0.622729, 0.015360153, -0.23495623, -0.39260322, -0.48746768, -0.08437211, 0.44812378, 0.046767704, 0.23728943, -0.032230176, 0.20726916, 0.25381, 0.04195584, -0.47554263, -0.49453688, -0.2922553, -0.5493893, -0.48950157, 0.37045586, 0.43808326, -0.026466098, 0.29032665, -0.19096291, 0.13516076, -0.3035127, 0.03984709, -0.20310448, -0.16907337, 0.59545374, -0.013124824, -0.40174568, 0.07288435, 0.4928468, -0.09507613, -0.7240351, 0.1375703, 0.01232797, -0.35533458, 0.3735098, -0.59676945, -0.14705189, -0.070205815, 0.11682375, -0.40736228, 0.68959296, -0.5133109, 0.14805456, -0.4039217, -0.65031976, 0.3866379, 0.3184655, -0.19329529, 0.4645769, 0.15650938, -0.51775366, -0.17182076, -0.69828856, -0.47947523, 0.32996467, 0.3853761, 0.10743943, -0.67276853, 0.100194305, -0.3268105, -0.105001405, 0.30626565, 0.54594016, 0.102225594, -0.5367699, -0.13481607, -0.1391408, -0.3931911, -0.11051453, -0.2824031, 0.6063437, 0.08034913, -0.6983203, 0.503395, -0.65989906, -0.52212477, 0.030181702, 0.12762958, -0.18513457, -0.5091295, -0.21138263, 0.5696739, 0.49088168, -0.43599722};
float layer_3_biases[] = {0.09821401, -0.064944476, 0.08307764, -0.0070799757, -0.01338885, -0.08207811};

